{
  "scale": 1000,
  "params": {
    "0.weight": [
      [
        28,
        -3,
        31,
        10,
        8,
        23,
        -6,
        -1,
        -29,
        -31,
        18,
        -31,
        0,
        -8,
        29,
        16,
        -29,
        -29,
        -35,
        5,
        9,
        -12,
        18,
        35,
        -13,
        14,
        10,
        0,
        19,
        -3,
        -23,
        -27,
        -43,
        -45,
        9,
        6,
        1,
        14,
        192,
        220,
        178,
        -211,
        330,
        453,
        462,
        302,
        107,
        -50,
        -68,
        -10,
        8,
        7,
        -6,
        -27,
        -12,
        27,
        30,
        -2,
        -28,
        20,
        -16,
        -83,
        36,
        30,
        -282,
        -315,
        -300,
        -247,
        158,
        502,
        403,
        599,
        745,
        364,
        72,
        -8,
        0,
        -351,
        -455,
        -359,
        59,
        -50,
        23,
        14,
        13,
        18,
        348,
        176,
        -280,
        27,
        7,
        210,
        -17,
        -275,
        -130,
        -126,
        286,
        292,
        -142,
        -110,
        172,
        121,
        108,
        -56,
        -9,
        28,
        487,
        415,
        -164,
        -141,
        -217,
        -24,
        24,
        16,
        365,
        286,
        174,
        100,
        134,
        96,
        303,
        -50,
        -102,
        -68,
        169,
        141,
        411,
        217,
        353,
        160,
        131,
        33,
        -48,
        -109,
        -53,
        -232,
        -112,
        -452,
        -132,
        -160,
        -31,
        5,
        465,
        99,
        187,
        22,
        81,
        -158,
        -522,
        -554,
        -60,
        -69,
        -296,
        -237,
        -123,
        257,
        94,
        55,
        144,
        362,
        340,
        191,
        11,
        -360,
        -240,
        65,
        -114,
        -215,
        10,
        166,
        -166,
        192,
        -224,
        -695,
        -667,
        -386,
        -298,
        -418,
        -247,
        -14,
        -20,
        -5,
        213,
        95,
        206,
        144,
        202,
        -53,
        69,
        -51,
        -249,
        -298,
        -492,
        -86,
        -184,
        -55,
        -64,
        134,
        -306,
        -418,
        -357,
        -725,
        -830,
        -470,
        -191,
        -315,
        -115,
        43,
        143,
        26,
        142,
        322,
        219,
        -42,
        33,
        -27,
        56,
        68,
        -12,
        -116,
        -269,
        -118,
        -303,
        -236,
        -212,
        -361,
        -275,
        -422,
        -310,
        -669,
        -127,
        -141,
        -30,
        -58,
        91,
        122,
        -51,
        51,
        -12,
        44,
        107,
        -62,
        -149,
        47,
        -70,
        78,
        90,
        -187,
        -210,
        -199,
        203,
        99,
        -255,
        -435,
        -104,
        -258,
        -194,
        -572,
        -40,
        136,
        229,
        248,
        409,
        53,
        -149,
        15,
        -72,
        167,
        160,
        41,
        -100,
        25,
        45,
        16,
        -122,
        -153,
        -341,
        213,
        360,
        162,
        -247,
        -407,
        -217,
        -490,
        -162,
        -651,
        -221,
        100,
        125,
        121,
        188,
        54,
        -92,
        -198,
        80,
        22,
        199,
        140,
        207,
        165,
        -37,
        -266,
        -363,
        -282,
        -531,
        -208,
        201,
        217,
        -310,
        -363,
        -117,
        -444,
        33,
        -361,
        -216,
        234,
        -200,
        -169,
        0,
        1,
        -164,
        -96,
        63,
        162,
        360,
        321,
        497,
        341,
        39,
        -380,
        -224,
        -293,
        -493,
        -26,
        235,
        112,
        -162,
        -342,
        141,
        -397,
        84,
        -86,
        -94,
        120,
        -144,
        16,
        -155,
        75,
        -72,
        -91,
        232,
        157,
        239,
        433,
        382,
        196,
        -307,
        -341,
        -573,
        -456,
        -324,
        -161,
        3,
        22,
        164,
        -150,
        -100,
        -257,
        -443,
        -64,
        -118,
        -1,
        -91,
        -55,
        -126,
        168,
        -31,
        47,
        239,
        316,
        178,
        183,
        45,
        -343,
        -645,
        -924,
        -747,
        -526,
        -360,
        22,
        287,
        217,
        -204,
        -215,
        -49,
        -2,
        -398,
        -471,
        -240,
        34,
        -40,
        -155,
        -44,
        133,
        -12,
        65,
        219,
        42,
        67,
        -44,
        -55,
        -453,
        -702,
        -695,
        -547,
        -620,
        -231,
        297,
        440,
        186,
        -223,
        -157,
        260,
        -472,
        -147,
        -376,
        -269,
        -8,
        120,
        235,
        40,
        73,
        -129,
        226,
        146,
        -166,
        117,
        -70,
        -185,
        -308,
        -653,
        -474,
        -35,
        -582,
        -166,
        320,
        120,
        424,
        -284,
        36,
        307,
        -236,
        -110,
        -228,
        15,
        98,
        180,
        356,
        185,
        156,
        -61,
        32,
        -64,
        -119,
        -22,
        -329,
        -372,
        -502,
        -387,
        -72,
        243,
        -140,
        -99,
        176,
        171,
        349,
        28,
        36,
        65,
        70,
        318,
        111,
        -37,
        26,
        247,
        175,
        126,
        -47,
        -97,
        -57,
        83,
        -98,
        -157,
        -151,
        -415,
        -386,
        -208,
        37,
        186,
        78,
        216,
        548,
        498,
        516,
        47,
        301,
        -50,
        125,
        421,
        244,
        -71,
        -64,
        198,
        202,
        -71,
        -335,
        -415,
        -61,
        101,
        -81,
        -154,
        -155,
        -235,
        -113,
        -146,
        11,
        251,
        215,
        145,
        559,
        260,
        387,
        123,
        -358,
        -508,
        126,
        236,
        65,
        -17,
        -12,
        159,
        180,
        -215,
        -494,
        -276,
        120,
        112,
        -37,
        99,
        0,
        33,
        152,
        -2,
        93,
        337,
        226,
        -25,
        285,
        355,
        229,
        -17,
        -76,
        -414,
        350,
        253,
        -184,
        -100,
        127,
        -30,
        -134,
        8,
        -47,
        94,
        28,
        32,
        29,
        251,
        235,
        185,
        158,
        247,
        84,
        290,
        188,
        94,
        437,
        343,
        21,
        77,
        173,
        -243,
        162,
        331,
        -171,
        6,
        264,
        12,
        70,
        124,
        -87,
        -89,
        -14,
        -37,
        91,
        56,
        60,
        166,
        208,
        229,
        186,
        144,
        -110,
        13,
        168,
        258,
        6,
        92,
        141,
        -264,
        62,
        269,
        119,
        226,
        363,
        207,
        17,
        -18,
        -217,
        -204,
        12,
        45,
        49,
        136,
        60,
        97,
        -52,
        179,
        33,
        208,
        85,
        34,
        210,
        172,
        8,
        -29,
        17,
        177,
        451,
        -58,
        236,
        53,
        59,
        182,
        188,
        -126,
        -233,
        3,
        -5,
        -108,
        82,
        266,
        133,
        43,
        -102,
        92,
        -49,
        242,
        311,
        124,
        267,
        327,
        -11,
        17,
        -14,
        1,
        79,
        27,
        0,
        -24,
        -103,
        49,
        35,
        39,
        -63,
        -92,
        -373,
        -485,
        -203,
        -42,
        59,
        -130,
        -363,
        -236,
        -80,
        71,
        179,
        -28,
        220,
        203,
        -3,
        -6,
        -9,
        200,
        -503,
        -443,
        -462,
        -357,
        -335,
        -101,
        -88,
        -180,
        -272,
        84,
        146,
        154,
        -178,
        173,
        370,
        -29,
        -78,
        348,
        -24,
        -236,
        -299,
        -356,
        123,
        129,
        -31,
        29,
        21,
        34,
        87,
        459,
        -119,
        -279,
        -93,
        -108,
        -81,
        43,
        141,
        -120,
        -232,
        406,
        152,
        172,
        606,
        322,
        -114,
        254,
        47,
        -311,
        454,
        361,
        -5,
        -33,
        -4,
        6,
        -25,
        16,
        -3,
        -142,
        -112,
        -109,
        -253,
        -109,
        129,
        -149,
        12,
        -203,
        164,
        428,
        397,
        -3,
        -263,
        332,
        487,
        -49,
        -267,
        -317,
        -43,
        -22,
        3,
        -25,
        -26
      ],
      [
        -20,
        15,
        33,
        26,
        30,
        -33,
        25,
        -1,
        4,
        -23,
        -18,
        19,
        161,
        172,
        -20,
        -24,
        0,
        1,
        -8,
        -26,
        -23,
        25,
        -12,
        -9,
        23,
        5,
        7,
        15,
        -26,
        8,
        33,
        -15,
        -7,
        17,
        143,
        91,
        189,
        343,
        83,
        39,
        495,
        406,
        -104,
        283,
        301,
        403,
        384,
        182,
        317,
        315,
        89,
        13,
        3,
        -33,
        -33,
        18,
        23,
        -18,
        2,
        322,
        378,
        234,
        51,
        127,
        -291,
        -202,
        -151,
        53,
        -60,
        -482,
        -552,
        -223,
        266,
        59,
        46,
        55,
        -65,
        -45,
        76,
        -44,
        -97,
        -63,
        -26,
        -20,
        -4,
        25,
        -6,
        335,
        445,
        -106,
        -7,
        74,
        181,
        193,
        250,
        193,
        -15,
        -145,
        46,
        1,
        153,
        20,
        -116,
        139,
        181,
        123,
        -310,
        0,
        54,
        162,
        240,
        -16,
        -9,
        13,
        55,
        539,
        235,
        267,
        137,
        -60,
        -145,
        132,
        -85,
        394,
        394,
        230,
        253,
        -59,
        -153,
        -41,
        230,
        397,
        127,
        177,
        82,
        297,
        286,
        112,
        118,
        236,
        30,
        -17,
        23,
        211,
        269,
        538,
        188,
        -15,
        27,
        -8,
        -10,
        109,
        -90,
        -16,
        43,
        29,
        -113,
        -42,
        58,
        -120,
        -162,
        66,
        96,
        49,
        -146,
        -172,
        246,
        244,
        -27,
        -30,
        190,
        303,
        467,
        591,
        204,
        -53,
        236,
        10,
        34,
        349,
        145,
        211,
        0,
        -57,
        -137,
        -270,
        -348,
        -269,
        -338,
        74,
        370,
        326,
        -3,
        -349,
        298,
        359,
        -6,
        -282,
        337,
        357,
        93,
        67,
        -109,
        -237,
        55,
        222,
        254,
        425,
        297,
        204,
        -22,
        -129,
        -182,
        -199,
        -169,
        -375,
        -230,
        -234,
        44,
        189,
        -57,
        -447,
        465,
        371,
        417,
        87,
        354,
        306,
        -152,
        -176,
        -291,
        -203,
        130,
        243,
        159,
        337,
        83,
        -159,
        -166,
        -14,
        -102,
        -115,
        -48,
        -290,
        43,
        45,
        -85,
        -145,
        0,
        177,
        55,
        -176,
        179,
        400,
        313,
        -108,
        -43,
        -209,
        -231,
        -19,
        -83,
        -207,
        103,
        393,
        76,
        -237,
        -93,
        98,
        86,
        -7,
        -142,
        -181,
        118,
        164,
        -181,
        -95,
        214,
        344,
        -349,
        -27,
        203,
        323,
        570,
        -107,
        -15,
        -140,
        -58,
        38,
        107,
        -23,
        -52,
        188,
        36,
        115,
        93,
        326,
        389,
        371,
        154,
        -30,
        90,
        131,
        78,
        -255,
        242,
        -104,
        -243,
        -253,
        203,
        561,
        -37,
        177,
        -226,
        -231,
        -45,
        211,
        101,
        10,
        0,
        328,
        276,
        135,
        174,
        435,
        491,
        644,
        334,
        61,
        38,
        110,
        104,
        -104,
        22,
        -310,
        -187,
        -117,
        95,
        299,
        -57,
        62,
        -266,
        -319,
        -99,
        109,
        173,
        182,
        95,
        278,
        87,
        -39,
        -209,
        264,
        393,
        370,
        192,
        65,
        121,
        121,
        279,
        -82,
        -4,
        -278,
        210,
        -242,
        6,
        230,
        371,
        251,
        -268,
        -75,
        48,
        147,
        98,
        204,
        103,
        38,
        -183,
        -624,
        -646,
        -258,
        65,
        57,
        155,
        195,
        207,
        254,
        224,
        136,
        64,
        -63,
        -227,
        -312,
        -8,
        85,
        -20,
        -9,
        -491,
        96,
        78,
        47,
        -14,
        -93,
        57,
        -33,
        -81,
        -361,
        -358,
        -266,
        -265,
        -31,
        176,
        145,
        166,
        162,
        363,
        516,
        325,
        -140,
        -771,
        -289,
        -71,
        36,
        -226,
        -193,
        -336,
        75,
        153,
        284,
        -218,
        -127,
        87,
        32,
        -28,
        -344,
        -272,
        -228,
        -134,
        40,
        98,
        45,
        146,
        251,
        192,
        492,
        252,
        -238,
        -851,
        -393,
        24,
        -212,
        -26,
        -81,
        84,
        85,
        -35,
        160,
        77,
        -186,
        -15,
        27,
        -50,
        -147,
        -97,
        36,
        -130,
        -166,
        -135,
        34,
        215,
        101,
        -40,
        42,
        3,
        -622,
        -906,
        -243,
        -15,
        -49,
        141,
        -52,
        159,
        195,
        103,
        246,
        114,
        89,
        -46,
        44,
        14,
        38,
        195,
        -10,
        -243,
        -121,
        -128,
        -83,
        117,
        16,
        -39,
        -68,
        25,
        -194,
        72,
        113,
        -162,
        -55,
        247,
        -36,
        101,
        201,
        179,
        199,
        195,
        241,
        32,
        43,
        17,
        160,
        180,
        -163,
        -317,
        -104,
        -81,
        -120,
        -42,
        14,
        -222,
        -459,
        -99,
        -12,
        360,
        -285,
        -15,
        368,
        479,
        298,
        -52,
        -38,
        81,
        95,
        145,
        195,
        -66,
        -243,
        75,
        36,
        -5,
        -342,
        -454,
        26,
        41,
        -171,
        9,
        -123,
        -414,
        -833,
        -288,
        -116,
        -329,
        -96,
        31,
        227,
        153,
        -43,
        -189,
        -323,
        -125,
        -202,
        82,
        130,
        16,
        131,
        196,
        -32,
        -88,
        -285,
        -351,
        -134,
        -199,
        -180,
        -195,
        -170,
        -489,
        -856,
        -457,
        -590,
        -36,
        21,
        -39,
        -73,
        -149,
        -83,
        -349,
        -317,
        -388,
        -291,
        -70,
        42,
        -44,
        258,
        105,
        -97,
        -226,
        -187,
        -108,
        -216,
        -170,
        -260,
        -194,
        -225,
        -287,
        -815,
        -453,
        -453,
        436,
        19,
        -6,
        -24,
        -226,
        162,
        -229,
        -166,
        -245,
        5,
        119,
        181,
        131,
        50,
        -5,
        -59,
        -10,
        -28,
        -18,
        -51,
        -19,
        -69,
        -140,
        -77,
        -118,
        -615,
        -573,
        -354,
        386,
        55,
        -18,
        27,
        -333,
        212,
        86,
        -142,
        180,
        67,
        33,
        -69,
        183,
        186,
        85,
        -53,
        11,
        -235,
        -105,
        -8,
        -429,
        -422,
        -262,
        -124,
        -450,
        -679,
        -486,
        -118,
        -94,
        21,
        26,
        22,
        282,
        178,
        -28,
        103,
        -128,
        -77,
        -256,
        -340,
        -271,
        -57,
        -40,
        21,
        -138,
        -308,
        -77,
        -329,
        -393,
        -507,
        -811,
        -599,
        -310,
        -216,
        -349,
        -77,
        -135,
        -6,
        34,
        16,
        -148,
        244,
        -244,
        -236,
        97,
        271,
        -242,
        -202,
        70,
        266,
        4,
        -38,
        -79,
        219,
        283,
        -362,
        -328,
        -441,
        -466,
        -293,
        -200,
        -552,
        -355,
        79,
        33,
        33,
        26,
        -25,
        -24,
        -43,
        -516,
        -377,
        -413,
        -639,
        -173,
        22,
        -170,
        -114,
        69,
        -69,
        -249,
        -233,
        49,
        103,
        57,
        128,
        -441,
        -144,
        506,
        -192,
        -369,
        129,
        6,
        8,
        -28,
        16,
        24,
        31,
        131,
        214,
        -70,
        -222,
        -225,
        -176,
        34,
        -436,
        -352,
        -108,
        -247,
        -318,
        -152,
        84,
        -133,
        -126,
        -127,
        71,
        269,
        268,
        -4,
        -15,
        -18,
        26
      ],
      [
        -19,
        -14,
        31,
        3,
        -29,
        10,
        -8,
        -9,
        -3,
        28,
        -22,
        8,
        -175,
        -207,
        92,
        61,
        -19,
        13,
        -34,
        -25,
        -22,
        -1,
        -26,
        -14,
        -10,
        -33,
        20,
        -25,
        -2,
        -7,
        -28,
        -10,
        40,
        77,
        123,
        82,
        -152,
        -276,
        -78,
        118,
        -32,
        -70,
        -320,
        -225,
        122,
        89,
        -129,
        18,
        -138,
        -190,
        1,
        62,
        -19,
        -5,
        -22,
        -4,
        10,
        -19,
        14,
        39,
        192,
        170,
        114,
        152,
        547,
        679,
        831,
        707,
        734,
        70,
        436,
        230,
        -3,
        108,
        31,
        -38,
        17,
        262,
        139,
        251,
        280,
        196,
        5,
        -22,
        28,
        -21,
        -282,
        -127,
        296,
        482,
        497,
        492,
        186,
        319,
        299,
        510,
        304,
        174,
        149,
        204,
        392,
        30,
        -208,
        136,
        -30,
        -70,
        -374,
        -226,
        48,
        146,
        147,
        -25,
        -29,
        -20,
        -259,
        -419,
        -3,
        269,
        578,
        306,
        262,
        320,
        446,
        161,
        81,
        -217,
        -148,
        172,
        160,
        -52,
        -56,
        -7,
        -283,
        -715,
        -609,
        -373,
        -141,
        -86,
        129,
        386,
        -12,
        -4,
        -54,
        15,
        343,
        108,
        275,
        -53,
        17,
        63,
        37,
        82,
        83,
        -170,
        -136,
        48,
        175,
        -304,
        -101,
        -71,
        -59,
        -187,
        -216,
        50,
        -15,
        4,
        363,
        236,
        1,
        183,
        354,
        273,
        345,
        -68,
        -262,
        -351,
        -299,
        -157,
        -194,
        -110,
        -58,
        19,
        56,
        78,
        -8,
        -222,
        -319,
        -117,
        -300,
        -136,
        79,
        -256,
        -138,
        -9,
        151,
        228,
        -35,
        552,
        175,
        235,
        117,
        -44,
        -76,
        -292,
        -71,
        -143,
        -250,
        -22,
        -122,
        -51,
        257,
        -16,
        -151,
        -121,
        -155,
        -9,
        -87,
        -50,
        7,
        -442,
        -171,
        -107,
        208,
        268,
        382,
        280,
        -84,
        107,
        -36,
        181,
        122,
        -263,
        -115,
        -60,
        -72,
        -202,
        -240,
        -149,
        226,
        187,
        -157,
        -123,
        -10,
        99,
        97,
        -102,
        98,
        -370,
        -354,
        -239,
        102,
        173,
        32,
        81,
        -10,
        207,
        -75,
        -15,
        -41,
        -228,
        -305,
        -379,
        -338,
        -384,
        -435,
        -240,
        21,
        127,
        37,
        7,
        74,
        32,
        90,
        -35,
        -99,
        -500,
        -311,
        -318,
        -95,
        -76,
        -1,
        103,
        361,
        -120,
        -246,
        -46,
        -220,
        -477,
        -355,
        -296,
        -561,
        -536,
        -362,
        -114,
        -204,
        -115,
        -5,
        158,
        116,
        54,
        -89,
        89,
        -83,
        -417,
        -203,
        -363,
        -246,
        -231,
        -13,
        472,
        -442,
        -210,
        -134,
        69,
        -422,
        -487,
        -150,
        -385,
        -337,
        -264,
        -48,
        102,
        3,
        -161,
        -166,
        62,
        109,
        195,
        -24,
        35,
        91,
        -91,
        -214,
        -337,
        -702,
        -109,
        20,
        2,
        -294,
        -343,
        -226,
        -190,
        -504,
        -169,
        -107,
        -176,
        97,
        82,
        362,
        514,
        311,
        -122,
        -64,
        -64,
        -25,
        58,
        86,
        -85,
        87,
        -110,
        96,
        151,
        -258,
        -96,
        23,
        16,
        257,
        -160,
        -191,
        -200,
        -39,
        -65,
        88,
        90,
        103,
        120,
        497,
        488,
        75,
        -103,
        -40,
        -106,
        39,
        66,
        8,
        -230,
        36,
        215,
        324,
        199,
        241,
        270,
        35,
        -221,
        -76,
        84,
        26,
        124,
        172,
        62,
        131,
        41,
        -43,
        118,
        328,
        -136,
        -184,
        -204,
        20,
        -120,
        -19,
        10,
        -73,
        -84,
        54,
        172,
        307,
        39,
        571,
        458,
        50,
        -6,
        21,
        265,
        11,
        254,
        36,
        197,
        51,
        16,
        -48,
        179,
        40,
        -230,
        -170,
        -12,
        8,
        58,
        85,
        174,
        33,
        142,
        92,
        236,
        384,
        80,
        358,
        626,
        -22,
        108,
        46,
        158,
        115,
        184,
        37,
        406,
        195,
        26,
        100,
        293,
        38,
        -99,
        -12,
        245,
        38,
        132,
        139,
        305,
        158,
        563,
        166,
        147,
        155,
        277,
        496,
        433,
        -12,
        46,
        177,
        296,
        294,
        156,
        135,
        74,
        149,
        -26,
        120,
        237,
        48,
        99,
        156,
        70,
        -7,
        1,
        237,
        69,
        50,
        231,
        82,
        -179,
        -208,
        235,
        -55,
        129,
        -385,
        67,
        -45,
        457,
        253,
        167,
        126,
        -8,
        393,
        261,
        33,
        -7,
        -53,
        74,
        195,
        174,
        275,
        177,
        403,
        358,
        -41,
        42,
        -18,
        -32,
        -90,
        187,
        -100,
        325,
        -62,
        -323,
        -35,
        231,
        221,
        175,
        17,
        -28,
        31,
        84,
        -63,
        -42,
        -119,
        -25,
        210,
        345,
        327,
        297,
        353,
        268,
        -15,
        -117,
        -158,
        -54,
        -277,
        60,
        688,
        205,
        -18,
        -311,
        -50,
        366,
        -96,
        -84,
        -89,
        204,
        140,
        -48,
        -100,
        -76,
        100,
        36,
        9,
        32,
        50,
        19,
        179,
        60,
        -37,
        105,
        -136,
        -150,
        -137,
        180,
        433,
        -105,
        -2,
        209,
        199,
        405,
        -279,
        -121,
        -160,
        239,
        163,
        -92,
        -38,
        -34,
        2,
        -172,
        -278,
        -91,
        -65,
        -123,
        -69,
        -83,
        -125,
        85,
        51,
        -104,
        -369,
        154,
        393,
        40,
        35,
        75,
        194,
        50,
        -311,
        -170,
        -197,
        -99,
        -126,
        -96,
        87,
        87,
        -158,
        -289,
        -295,
        -59,
        -132,
        -408,
        -431,
        -69,
        136,
        119,
        29,
        -272,
        -278,
        -129,
        25,
        2,
        -28,
        15,
        416,
        -21,
        -384,
        -271,
        -239,
        -30,
        -36,
        -5,
        207,
        19,
        -68,
        -118,
        235,
        9,
        -257,
        -609,
        -774,
        -457,
        -211,
        -76,
        18,
        -122,
        -226,
        -221,
        -101,
        -1,
        -14,
        -26,
        8,
        -40,
        -287,
        -313,
        -408,
        -380,
        -185,
        51,
        1,
        110,
        -134,
        -110,
        74,
        41,
        -18,
        -509,
        -558,
        -479,
        -425,
        21,
        -138,
        -365,
        -106,
        243,
        88,
        17,
        -6,
        9,
        21,
        -38,
        -161,
        -382,
        -238,
        -445,
        -324,
        -337,
        33,
        -148,
        -290,
        -461,
        -418,
        -342,
        -164,
        -401,
        -533,
        -755,
        -633,
        -468,
        -331,
        -336,
        -336,
        108,
        86,
        8,
        -15,
        6,
        22,
        -31,
        -261,
        -305,
        -368,
        -707,
        -53,
        -24,
        86,
        -418,
        -809,
        -138,
        46,
        -503,
        -410,
        -349,
        -153,
        -227,
        -254,
        -172,
        -46,
        -281,
        -221,
        -15,
        -10,
        -2,
        1,
        -5,
        5,
        6,
        -36,
        -36,
        -303,
        -335,
        -297,
        -330,
        -348,
        -403,
        -259,
        -197,
        -212,
        -119,
        -12,
        -13,
        -46,
        -68,
        -28,
        -35,
        11,
        -4,
        31,
        -26,
        13,
        13
      ],
      [
        -14,
        2,
        -9,
        -2,
        7,
        15,
        -9,
        0,
        -25,
        29,
        3,
        21,
        18,
        -30,
        7,
        -25,
        13,
        28,
        -16,
        25,
        -16,
        25,
        -12,
        27,
        -33,
        2,
        7,
        -5,
        27,
        -5,
        -21,
        -27,
        -35,
        -4,
        58,
        15,
        -2,
        -22,
        7,
        -54,
        -38,
        -144,
        202,
        268,
        64,
        -90,
        -42,
        -88,
        -136,
        -126,
        -51,
        0,
        20,
        4,
        1,
        27,
        27,
        17,
        -29,
        -6,
        -93,
        -79,
        -90,
        39,
        -181,
        -302,
        18,
        9,
        -241,
        -757,
        -376,
        -114,
        -132,
        -257,
        165,
        124,
        140,
        -119,
        6,
        -153,
        -347,
        -245,
        4,
        -26,
        -12,
        29,
        150,
        52,
        -79,
        194,
        65,
        154,
        144,
        -349,
        -66,
        -264,
        -299,
        -290,
        6,
        295,
        -145,
        -311,
        -128,
        -267,
        -129,
        33,
        186,
        319,
        0,
        -241,
        -272,
        -35,
        -33,
        48,
        227,
        498,
        616,
        241,
        35,
        123,
        276,
        224,
        199,
        10,
        -20,
        -127,
        157,
        253,
        52,
        -206,
        -285,
        -10,
        -21,
        272,
        196,
        175,
        420,
        251,
        42,
        24,
        14,
        30,
        197,
        396,
        -30,
        4,
        244,
        308,
        -24,
        -80,
        -36,
        -190,
        29,
        84,
        167,
        123,
        185,
        136,
        -150,
        192,
        378,
        259,
        482,
        97,
        243,
        277,
        242,
        47,
        24,
        171,
        56,
        -300,
        -40,
        348,
        335,
        196,
        141,
        -113,
        -152,
        -11,
        94,
        57,
        85,
        50,
        133,
        19,
        -209,
        63,
        157,
        -142,
        -45,
        105,
        -56,
        61,
        257,
        -103,
        24,
        180,
        -193,
        -405,
        85,
        376,
        172,
        -12,
        90,
        185,
        185,
        224,
        160,
        -164,
        -86,
        132,
        30,
        32,
        38,
        165,
        116,
        -180,
        -60,
        77,
        -21,
        188,
        318,
        -100,
        -35,
        -525,
        -62,
        187,
        345,
        163,
        311,
        259,
        144,
        214,
        226,
        159,
        90,
        16,
        -191,
        -5,
        1,
        -24,
        73,
        101,
        54,
        -144,
        -43,
        51,
        246,
        517,
        428,
        -21,
        -229,
        -239,
        162,
        214,
        206,
        56,
        235,
        94,
        185,
        3,
        34,
        98,
        -6,
        4,
        -135,
        -48,
        23,
        -62,
        -140,
        71,
        -11,
        11,
        113,
        179,
        341,
        712,
        368,
        -260,
        -165,
        -236,
        -68,
        -11,
        336,
        154,
        128,
        42,
        28,
        -109,
        -82,
        -39,
        230,
        17,
        49,
        -167,
        -124,
        -29,
        2,
        46,
        27,
        -148,
        13,
        183,
        172,
        163,
        219,
        -166,
        -141,
        -275,
        -439,
        -231,
        155,
        137,
        -59,
        -240,
        -151,
        -80,
        -144,
        -17,
        410,
        344,
        124,
        -63,
        -2,
        -52,
        31,
        109,
        -10,
        -40,
        -205,
        100,
        159,
        469,
        607,
        -129,
        -68,
        -221,
        -317,
        -71,
        -269,
        -127,
        75,
        -213,
        -216,
        -155,
        190,
        373,
        529,
        531,
        104,
        -106,
        -113,
        -38,
        21,
        100,
        208,
        221,
        112,
        117,
        54,
        197,
        168,
        -195,
        180,
        -134,
        -346,
        -26,
        -462,
        -307,
        -256,
        -418,
        -218,
        -82,
        -116,
        305,
        446,
        351,
        161,
        131,
        79,
        43,
        91,
        59,
        209,
        -133,
        -206,
        -104,
        -22,
        283,
        207,
        25,
        154,
        52,
        -312,
        -400,
        -582,
        -343,
        -567,
        -660,
        -223,
        -306,
        -183,
        159,
        79,
        305,
        191,
        110,
        240,
        210,
        -29,
        -247,
        39,
        -97,
        -234,
        -374,
        -248,
        206,
        1,
        -223,
        -104,
        84,
        356,
        -134,
        -101,
        -354,
        -271,
        -279,
        -394,
        -464,
        -303,
        -184,
        92,
        237,
        138,
        -65,
        -20,
        -143,
        36,
        -99,
        3,
        37,
        39,
        -24,
        -47,
        291,
        -156,
        -228,
        -279,
        154,
        395,
        173,
        77,
        -424,
        -78,
        -126,
        -151,
        -313,
        -316,
        -179,
        207,
        68,
        -53,
        -47,
        -192,
        -194,
        47,
        -147,
        -73,
        -115,
        109,
        395,
        345,
        303,
        -330,
        -310,
        -13,
        239,
        339,
        41,
        307,
        -63,
        142,
        180,
        132,
        50,
        -338,
        -228,
        -179,
        -43,
        -118,
        -71,
        35,
        -102,
        -17,
        91,
        26,
        32,
        28,
        506,
        414,
        -177,
        -216,
        -243,
        -261,
        172,
        304,
        161,
        447,
        370,
        378,
        176,
        175,
        140,
        -111,
        -153,
        -397,
        -192,
        -89,
        -70,
        1,
        -229,
        -75,
        44,
        90,
        -130,
        -228,
        216,
        193,
        -201,
        -280,
        -19,
        74,
        -402,
        -96,
        324,
        272,
        398,
        201,
        -6,
        131,
        167,
        -26,
        -360,
        -507,
        -438,
        -227,
        7,
        127,
        -26,
        -67,
        26,
        -57,
        -96,
        -26,
        183,
        40,
        51,
        -307,
        -81,
        12,
        -103,
        -166,
        -75,
        355,
        46,
        144,
        114,
        72,
        101,
        -14,
        -103,
        -343,
        -369,
        -130,
        -57,
        31,
        33,
        8,
        90,
        34,
        -35,
        42,
        55,
        89,
        -212,
        -100,
        32,
        36,
        112,
        -90,
        -216,
        109,
        -125,
        245,
        199,
        -11,
        136,
        0,
        62,
        -224,
        -135,
        -97,
        -38,
        -69,
        54,
        39,
        100,
        62,
        -6,
        7,
        -211,
        -130,
        -245,
        -225,
        -37,
        69,
        117,
        -70,
        -223,
        14,
        -123,
        -21,
        147,
        -118,
        -17,
        39,
        191,
        22,
        59,
        98,
        -48,
        3,
        -6,
        21,
        140,
        17,
        32,
        35,
        -295,
        -35,
        -127,
        -38,
        -39,
        34,
        -20,
        268,
        234,
        -128,
        -316,
        -308,
        -54,
        -110,
        131,
        37,
        48,
        215,
        211,
        108,
        -30,
        107,
        -76,
        117,
        219,
        141,
        174,
        167,
        -164,
        -270,
        -89,
        -108,
        -1,
        -13,
        24,
        447,
        400,
        -568,
        -367,
        -81,
        -128,
        -53,
        118,
        142,
        56,
        173,
        51,
        181,
        -153,
        115,
        -270,
        -103,
        84,
        200,
        -1,
        106,
        40,
        -189,
        -111,
        -99,
        0,
        29,
        25,
        237,
        -114,
        -718,
        -513,
        -301,
        -505,
        -297,
        -104,
        51,
        -228,
        116,
        62,
        149,
        91,
        -128,
        -81,
        199,
        214,
        -91,
        37,
        311,
        446,
        171,
        -66,
        -37,
        -4,
        13,
        27,
        -7,
        -354,
        -312,
        -503,
        -590,
        -273,
        -400,
        -270,
        -105,
        -44,
        -140,
        -573,
        -365,
        -293,
        -63,
        74,
        118,
        -46,
        -294,
        -323,
        23,
        -284,
        -117,
        -48,
        -9,
        -35,
        30,
        -28,
        -15,
        -32,
        -28,
        -77,
        -76,
        -134,
        -180,
        -284,
        -469,
        -343,
        -448,
        -666,
        -450,
        103,
        44,
        -414,
        -275,
        -432,
        -340,
        -271,
        12,
        28,
        28,
        16,
        2,
        32
      ],
      [
        13,
        -19,
        28,
        30,
        6,
        -2,
        -9,
        22,
        -20,
        -30,
        4,
        0,
        169,
        214,
        3,
        9,
        3,
        14,
        -9,
        -1,
        14,
        -25,
        20,
        -3,
        4,
        24,
        0,
        29,
        -20,
        -25,
        -12,
        30,
        23,
        76,
        190,
        260,
        221,
        404,
        106,
        -81,
        198,
        182,
        72,
        584,
        496,
        124,
        430,
        365,
        331,
        363,
        218,
        61,
        14,
        -7,
        6,
        29,
        34,
        30,
        133,
        119,
        310,
        106,
        139,
        258,
        -10,
        -115,
        -13,
        437,
        362,
        330,
        80,
        321,
        392,
        380,
        388,
        269,
        232,
        103,
        243,
        173,
        -103,
        -148,
        31,
        7,
        -6,
        -26,
        255,
        183,
        -129,
        12,
        349,
        547,
        622,
        -1,
        49,
        144,
        447,
        373,
        46,
        89,
        -79,
        -131,
        78,
        137,
        204,
        -33,
        -28,
        219,
        106,
        246,
        430,
        21,
        21,
        14,
        174,
        328,
        -51,
        -130,
        14,
        262,
        405,
        358,
        389,
        116,
        -180,
        -205,
        -117,
        87,
        120,
        39,
        -17,
        144,
        86,
        31,
        -188,
        107,
        22,
        38,
        151,
        -17,
        27,
        11,
        360,
        81,
        253,
        -4,
        22,
        -46,
        -156,
        -74,
        78,
        -52,
        -377,
        -420,
        -314,
        -179,
        57,
        227,
        238,
        307,
        293,
        214,
        136,
        3,
        110,
        119,
        269,
        -202,
        -21,
        66,
        9,
        270,
        254,
        -139,
        85,
        87,
        -43,
        -21,
        117,
        112,
        -50,
        -71,
        35,
        -54,
        -238,
        -42,
        -49,
        -7,
        307,
        218,
        33,
        213,
        268,
        137,
        86,
        226,
        -69,
        171,
        -135,
        -19,
        17,
        -409,
        -82,
        5,
        -55,
        -205,
        190,
        167,
        117,
        147,
        383,
        208,
        -86,
        -325,
        -256,
        -220,
        -24,
        65,
        -21,
        76,
        -100,
        -14,
        -129,
        128,
        -21,
        -132,
        -204,
        -261,
        -28,
        -235,
        -110,
        -75,
        -75,
        -268,
        124,
        255,
        194,
        304,
        73,
        -90,
        -119,
        -374,
        -483,
        -276,
        -215,
        70,
        40,
        -54,
        -208,
        -185,
        16,
        280,
        4,
        -148,
        -356,
        -117,
        194,
        -55,
        -52,
        47,
        112,
        221,
        106,
        93,
        62,
        107,
        -125,
        -225,
        -195,
        -184,
        -348,
        -241,
        -231,
        -84,
        67,
        -42,
        -396,
        4,
        -177,
        -315,
        -31,
        -189,
        -464,
        246,
        222,
        -49,
        -19,
        -78,
        197,
        153,
        214,
        62,
        42,
        201,
        25,
        -362,
        -70,
        -70,
        23,
        -57,
        73,
        -248,
        -306,
        -592,
        -359,
        13,
        198,
        -282,
        -190,
        -391,
        -150,
        372,
        253,
        2,
        -264,
        -124,
        21,
        -108,
        -43,
        51,
        193,
        224,
        245,
        200,
        170,
        57,
        -40,
        -5,
        -57,
        -423,
        -388,
        -508,
        -125,
        360,
        674,
        -155,
        -136,
        -251,
        -63,
        204,
        131,
        -135,
        -260,
        -71,
        -151,
        -145,
        -101,
        15,
        -12,
        255,
        356,
        107,
        -126,
        53,
        17,
        -230,
        -160,
        -440,
        -571,
        -599,
        -522,
        -321,
        -204,
        -219,
        99,
        -169,
        -195,
        -34,
        -311,
        -277,
        -256,
        -266,
        -215,
        -273,
        -326,
        -142,
        30,
        180,
        152,
        -51,
        97,
        12,
        -205,
        -184,
        3,
        -163,
        -896,
        -894,
        -622,
        -467,
        -6,
        -96,
        75,
        60,
        -10,
        -108,
        -315,
        -288,
        -41,
        -162,
        -259,
        -286,
        -187,
        -152,
        -168,
        239,
        181,
        146,
        178,
        37,
        -299,
        -70,
        239,
        159,
        -595,
        -990,
        -547,
        -438,
        -501,
        -178,
        -78,
        188,
        383,
        -245,
        -18,
        143,
        158,
        62,
        142,
        -172,
        -138,
        -90,
        -52,
        435,
        316,
        -98,
        10,
        -122,
        -80,
        92,
        303,
        455,
        -470,
        -795,
        -581,
        -329,
        -358,
        -211,
        -253,
        164,
        247,
        51,
        109,
        87,
        151,
        68,
        -2,
        -31,
        -30,
        -78,
        -15,
        105,
        125,
        -242,
        -325,
        -238,
        55,
        239,
        305,
        102,
        99,
        -271,
        5,
        -318,
        -446,
        -296,
        -21,
        206,
        -66,
        327,
        84,
        -28,
        33,
        287,
        136,
        -137,
        -243,
        -52,
        101,
        47,
        -90,
        -110,
        -254,
        1,
        106,
        365,
        342,
        199,
        -132,
        -364,
        -141,
        -810,
        -359,
        -70,
        3,
        45,
        -13,
        353,
        233,
        108,
        118,
        238,
        39,
        -48,
        -125,
        -206,
        -138,
        -99,
        58,
        -14,
        -31,
        3,
        -1,
        214,
        35,
        61,
        -329,
        -467,
        -318,
        -510,
        -406,
        -2,
        85,
        -78,
        145,
        235,
        236,
        165,
        183,
        251,
        231,
        219,
        94,
        -196,
        -109,
        71,
        92,
        11,
        89,
        0,
        10,
        -28,
        -14,
        -88,
        -130,
        -220,
        -346,
        -226,
        -428,
        -44,
        23,
        -53,
        25,
        215,
        264,
        385,
        230,
        116,
        127,
        369,
        329,
        -70,
        -112,
        100,
        125,
        30,
        62,
        77,
        42,
        -6,
        46,
        -21,
        11,
        18,
        -317,
        48,
        -293,
        53,
        62,
        -111,
        54,
        -220,
        -73,
        -198,
        -122,
        -169,
        -233,
        75,
        255,
        119,
        78,
        208,
        1,
        -54,
        41,
        -36,
        212,
        9,
        172,
        -35,
        37,
        80,
        74,
        50,
        -292,
        -43,
        45,
        24,
        60,
        -176,
        -213,
        -408,
        -260,
        -176,
        -219,
        -204,
        -42,
        43,
        -82,
        -86,
        15,
        54,
        -33,
        59,
        151,
        -130,
        59,
        -103,
        272,
        335,
        150,
        230,
        148,
        -49,
        -27,
        -10,
        66,
        -39,
        -193,
        -325,
        -139,
        131,
        -165,
        -54,
        -34,
        102,
        -58,
        -73,
        -131,
        134,
        248,
        80,
        70,
        122,
        180,
        52,
        400,
        283,
        281,
        219,
        195,
        27,
        17,
        22,
        123,
        339,
        -263,
        -197,
        108,
        7,
        -349,
        -258,
        -177,
        42,
        88,
        -99,
        -98,
        22,
        185,
        259,
        252,
        114,
        264,
        34,
        114,
        108,
        -80,
        -340,
        -139,
        3,
        -8,
        0,
        168,
        -201,
        -254,
        -196,
        291,
        147,
        148,
        1,
        56,
        -122,
        249,
        190,
        -15,
        226,
        457,
        523,
        445,
        537,
        98,
        -43,
        74,
        -140,
        133,
        -60,
        -134,
        -32,
        -14,
        -19,
        -12,
        -15,
        -106,
        -120,
        -444,
        -391,
        -342,
        -264,
        68,
        181,
        238,
        60,
        306,
        511,
        327,
        365,
        77,
        -145,
        49,
        -252,
        -118,
        445,
        243,
        -28,
        -32,
        17,
        4,
        -5,
        -9,
        -28,
        -46,
        17,
        -3,
        -6,
        -24,
        -202,
        -356,
        -298,
        -311,
        -149,
        168,
        390,
        287,
        -135,
        -143,
        -80,
        -319,
        -452,
        -429,
        -229,
        24,
        -30,
        -5,
        -10
      ],
      [
        1,
        -1,
        3,
        18,
        -11,
        9,
        -3,
        -28,
        26,
        6,
        -31,
        33,
        -101,
        -90,
        -49,
        -10,
        -8,
        23,
        18,
        1,
        -12,
        -7,
        -1,
        9,
        19,
        29,
        -33,
        -25,
        26,
        8,
        19,
        10,
        -14,
        35,
        -42,
        -54,
        -55,
        -150,
        107,
        356,
        405,
        -252,
        -234,
        -236,
        -237,
        230,
        136,
        167,
        -77,
        -115,
        -126,
        -101,
        -34,
        -26,
        -25,
        -9,
        27,
        12,
        33,
        36,
        -131,
        -27,
        -142,
        -156,
        376,
        369,
        180,
        -96,
        -96,
        -256,
        -231,
        -235,
        -143,
        -178,
        -465,
        -98,
        164,
        163,
        414,
        234,
        245,
        208,
        28,
        21,
        23,
        11,
        391,
        298,
        -63,
        113,
        192,
        161,
        84,
        74,
        -126,
        269,
        0,
        -105,
        -124,
        -4,
        -19,
        -166,
        -331,
        -67,
        -45,
        -138,
        -20,
        222,
        201,
        15,
        -55,
        -2,
        34,
        13,
        433,
        134,
        174,
        330,
        239,
        -205,
        142,
        -84,
        -81,
        -138,
        52,
        104,
        -101,
        -14,
        9,
        -188,
        -317,
        68,
        -29,
        31,
        -167,
        -329,
        -126,
        -609,
        -203,
        357,
        10,
        34,
        352,
        139,
        43,
        113,
        -125,
        -13,
        13,
        -133,
        154,
        146,
        1,
        8,
        155,
        311,
        -101,
        -288,
        -118,
        -209,
        -513,
        -181,
        -93,
        -51,
        18,
        -448,
        211,
        117,
        -13,
        119,
        135,
        115,
        -11,
        -237,
        15,
        44,
        114,
        116,
        -12,
        -138,
        -189,
        -6,
        54,
        43,
        -8,
        -137,
        -192,
        -371,
        -796,
        -113,
        152,
        -56,
        -238,
        -191,
        113,
        254,
        35,
        445,
        100,
        219,
        385,
        -110,
        18,
        122,
        135,
        -14,
        -433,
        -363,
        -264,
        -104,
        155,
        122,
        151,
        111,
        -114,
        -382,
        -496,
        -337,
        -96,
        -308,
        -209,
        -168,
        -111,
        268,
        -99,
        -42,
        -84,
        33,
        460,
        186,
        -16,
        -145,
        -168,
        -209,
        -372,
        -379,
        -214,
        11,
        361,
        430,
        297,
        32,
        -53,
        -252,
        -402,
        -507,
        -446,
        -477,
        -429,
        -483,
        -156,
        -398,
        107,
        75,
        306,
        -18,
        331,
        219,
        -153,
        -122,
        -261,
        -386,
        -197,
        -11,
        90,
        31,
        207,
        525,
        557,
        287,
        102,
        -229,
        -536,
        -618,
        -413,
        -244,
        -458,
        -529,
        -244,
        194,
        171,
        40,
        340,
        154,
        -227,
        -37,
        65,
        202,
        -186,
        -244,
        52,
        194,
        106,
        121,
        224,
        374,
        377,
        396,
        -11,
        -391,
        -653,
        -598,
        -313,
        -349,
        -379,
        -361,
        37,
        369,
        206,
        319,
        187,
        122,
        -265,
        -346,
        78,
        294,
        33,
        113,
        201,
        246,
        134,
        167,
        201,
        127,
        -2,
        203,
        170,
        -113,
        -202,
        -435,
        -343,
        -407,
        -683,
        -477,
        -447,
        -260,
        56,
        -52,
        -16,
        77,
        -92,
        -310,
        -42,
        94,
        129,
        197,
        121,
        -124,
        108,
        171,
        175,
        184,
        188,
        161,
        178,
        48,
        -192,
        -131,
        -206,
        -130,
        100,
        -41,
        -805,
        -339,
        212,
        93,
        -271,
        -92,
        -179,
        -42,
        120,
        -184,
        -34,
        140,
        173,
        -80,
        -108,
        168,
        165,
        169,
        321,
        289,
        253,
        -152,
        -236,
        -237,
        134,
        211,
        -109,
        99,
        -508,
        159,
        -99,
        -7,
        -118,
        -319,
        -321,
        -101,
        -358,
        -468,
        -228,
        -5,
        -91,
        -152,
        6,
        71,
        59,
        78,
        96,
        65,
        -7,
        -154,
        -506,
        -297,
        -87,
        454,
        140,
        531,
        245,
        271,
        186,
        51,
        168,
        -175,
        -105,
        -269,
        -503,
        -466,
        -105,
        55,
        0,
        49,
        101,
        23,
        -40,
        282,
        250,
        109,
        -268,
        -182,
        -241,
        9,
        290,
        361,
        185,
        191,
        356,
        187,
        315,
        246,
        194,
        -205,
        -180,
        -218,
        -644,
        -265,
        150,
        287,
        97,
        203,
        147,
        -105,
        12,
        167,
        258,
        -118,
        -84,
        -112,
        -71,
        46,
        131,
        254,
        147,
        -136,
        27,
        227,
        -19,
        179,
        2,
        -317,
        -493,
        -285,
        -435,
        -356,
        -62,
        243,
        333,
        98,
        31,
        6,
        52,
        -13,
        44,
        -89,
        -54,
        -55,
        0,
        136,
        87,
        214,
        -187,
        62,
        118,
        335,
        -287,
        152,
        35,
        -227,
        -178,
        -302,
        -57,
        -148,
        -41,
        216,
        269,
        248,
        217,
        193,
        -181,
        -50,
        8,
        -7,
        168,
        127,
        44,
        52,
        -41,
        -186,
        -210,
        32,
        33,
        364,
        70,
        -164,
        -61,
        58,
        -153,
        -99,
        -212,
        -89,
        41,
        95,
        275,
        -6,
        -9,
        -119,
        -36,
        -92,
        -113,
        -111,
        76,
        274,
        65,
        31,
        -161,
        -233,
        -211,
        346,
        103,
        273,
        21,
        312,
        -7,
        51,
        -158,
        -221,
        3,
        98,
        -60,
        10,
        97,
        65,
        14,
        -228,
        16,
        -158,
        -23,
        -35,
        -106,
        -48,
        88,
        -68,
        -167,
        -250,
        -63,
        539,
        305,
        96,
        119,
        121,
        94,
        1,
        -187,
        -95,
        -87,
        -126,
        104,
        26,
        -44,
        -102,
        33,
        -158,
        -10,
        -3,
        20,
        -236,
        -64,
        -30,
        -142,
        -23,
        -29,
        -210,
        -256,
        468,
        349,
        -3,
        101,
        93,
        249,
        222,
        45,
        60,
        -38,
        -91,
        73,
        -89,
        58,
        -138,
        -85,
        6,
        -9,
        -55,
        -90,
        -185,
        53,
        15,
        34,
        240,
        101,
        -237,
        -174,
        279,
        174,
        1,
        14,
        -34,
        36,
        277,
        37,
        -156,
        -40,
        137,
        -131,
        -83,
        53,
        23,
        93,
        135,
        5,
        1,
        -166,
        118,
        291,
        171,
        169,
        404,
        182,
        148,
        28,
        179,
        145,
        17,
        -33,
        -22,
        64,
        146,
        31,
        -118,
        51,
        -92,
        -35,
        -2,
        52,
        161,
        14,
        133,
        273,
        -7,
        -8,
        42,
        122,
        291,
        170,
        404,
        173,
        328,
        -17,
        338,
        242,
        20,
        -31,
        -10,
        31,
        178,
        472,
        427,
        -49,
        111,
        462,
        216,
        -381,
        -148,
        -222,
        -167,
        -98,
        -225,
        -231,
        -65,
        148,
        -34,
        9,
        -151,
        -224,
        -179,
        -303,
        178,
        41,
        -30,
        -19,
        -9,
        -1,
        191,
        480,
        309,
        124,
        217,
        168,
        144,
        144,
        435,
        367,
        -149,
        -154,
        -369,
        13,
        322,
        560,
        250,
        29,
        -105,
        -253,
        -172,
        -65,
        -23,
        26,
        -11,
        22,
        35,
        35,
        32,
        -174,
        -163,
        100,
        147,
        162,
        304,
        399,
        392,
        260,
        11,
        -24,
        -67,
        59,
        478,
        285,
        412,
        271,
        328,
        319,
        -24,
        -20,
        32,
        22,
        -26
      ],
      [
        -21,
        -30,
        -3,
        -26,
        -7,
        17,
        -35,
        -20,
        6,
        19,
        -21,
        -33,
        -2,
        -30,
        14,
        -26,
        0,
        -31,
        27,
        18,
        22,
        6,
        -33,
        30,
        33,
        29,
        6,
        -23,
        -15,
        20,
        -2,
        -7,
        -28,
        29,
        -14,
        -17,
        -26,
        21,
        6,
        11,
        -7,
        -44,
        -58,
        90,
        130,
        14,
        110,
        370,
        284,
        204,
        85,
        -3,
        -9,
        -34,
        -4,
        7,
        -5,
        -27,
        -9,
        81,
        77,
        3,
        162,
        86,
        34,
        100,
        -52,
        -106,
        -263,
        -123,
        -103,
        279,
        588,
        344,
        250,
        533,
        418,
        380,
        529,
        112,
        -105,
        -128,
        -27,
        -11,
        30,
        -25,
        -21,
        83,
        31,
        73,
        34,
        33,
        -111,
        -199,
        -414,
        -610,
        -418,
        191,
        130,
        -196,
        -146,
        156,
        397,
        416,
        148,
        -127,
        -58,
        260,
        -22,
        -373,
        -121,
        9,
        32,
        -14,
        -236,
        -101,
        -290,
        -239,
        -96,
        -177,
        -862,
        -907,
        -580,
        -639,
        -411,
        -66,
        54,
        18,
        137,
        56,
        57,
        90,
        -19,
        -148,
        -85,
        -132,
        -428,
        -443,
        -144,
        354,
        -24,
        34,
        -118,
        -108,
        -31,
        -320,
        -30,
        -45,
        -377,
        -357,
        -245,
        -348,
        -280,
        -80,
        121,
        55,
        -24,
        211,
        211,
        285,
        233,
        416,
        47,
        -59,
        17,
        104,
        432,
        263,
        16,
        -98,
        189,
        -105,
        -214,
        -469,
        -84,
        -193,
        -385,
        -403,
        -149,
        -126,
        -15,
        63,
        -50,
        74,
        -26,
        0,
        -58,
        64,
        -84,
        285,
        409,
        209,
        -26,
        187,
        54,
        317,
        -24,
        -347,
        209,
        -254,
        -442,
        -417,
        -43,
        -446,
        -613,
        -200,
        28,
        24,
        124,
        225,
        85,
        27,
        70,
        91,
        113,
        -36,
        -105,
        238,
        280,
        343,
        51,
        -65,
        -23,
        359,
        -14,
        58,
        296,
        96,
        -363,
        -316,
        -147,
        -237,
        -391,
        -180,
        -150,
        184,
        461,
        242,
        124,
        -85,
        100,
        127,
        -32,
        32,
        40,
        146,
        271,
        190,
        -159,
        -420,
        -77,
        -40,
        27,
        49,
        177,
        -189,
        -161,
        -469,
        -488,
        -144,
        -61,
        87,
        -2,
        -7,
        133,
        164,
        13,
        -185,
        -282,
        -258,
        -98,
        133,
        140,
        104,
        -26,
        129,
        -33,
        -16,
        -521,
        -181,
        -22,
        35,
        -20,
        -20,
        -278,
        -350,
        -218,
        180,
        140,
        178,
        -125,
        -41,
        171,
        319,
        163,
        225,
        -5,
        -8,
        -30,
        -230,
        51,
        24,
        244,
        270,
        -76,
        -511,
        -230,
        -99,
        -4,
        0,
        -42,
        -87,
        -102,
        -551,
        -144,
        506,
        40,
        32,
        -276,
        53,
        255,
        231,
        128,
        45,
        -191,
        -279,
        -213,
        -56,
        -68,
        -4,
        66,
        31,
        -145,
        -257,
        234,
        114,
        -18,
        92,
        -44,
        -146,
        -120,
        -532,
        -19,
        185,
        13,
        38,
        -159,
        156,
        329,
        256,
        51,
        -191,
        -441,
        -240,
        -200,
        -140,
        -237,
        29,
        81,
        280,
        137,
        51,
        181,
        126,
        -3,
        86,
        199,
        -166,
        97,
        -196,
        10,
        0,
        -97,
        59,
        62,
        256,
        235,
        32,
        -93,
        -288,
        -413,
        -177,
        -183,
        -347,
        -182,
        -144,
        29,
        229,
        113,
        297,
        234,
        259,
        177,
        -99,
        -44,
        -192,
        41,
        238,
        -16,
        -59,
        -171,
        -55,
        285,
        335,
        86,
        -184,
        -380,
        -164,
        -328,
        -81,
        -280,
        -402,
        -196,
        -151,
        -84,
        -29,
        -64,
        11,
        44,
        243,
        121,
        -40,
        -197,
        68,
        17,
        289,
        -29,
        8,
        139,
        250,
        202,
        198,
        -18,
        -365,
        -409,
        -57,
        2,
        -116,
        -191,
        -211,
        -56,
        -44,
        -113,
        -98,
        42,
        -372,
        -485,
        -92,
        -87,
        -65,
        -397,
        57,
        56,
        124,
        -33,
        -63,
        35,
        240,
        297,
        219,
        -221,
        -515,
        -171,
        -110,
        -244,
        -3,
        -238,
        -187,
        -117,
        -65,
        -143,
        -140,
        -186,
        -122,
        253,
        -120,
        9,
        -180,
        -612,
        -32,
        203,
        74,
        5,
        62,
        -95,
        106,
        158,
        -223,
        -477,
        -237,
        75,
        -117,
        -317,
        4,
        -67,
        -114,
        -335,
        -112,
        52,
        120,
        -211,
        -209,
        62,
        -61,
        -76,
        -197,
        -325,
        -227,
        39,
        -36,
        128,
        92,
        153,
        209,
        -162,
        -451,
        -511,
        -454,
        -311,
        -129,
        1,
        -32,
        75,
        -166,
        -286,
        -104,
        10,
        136,
        -221,
        -49,
        239,
        125,
        -33,
        383,
        178,
        -318,
        200,
        -72,
        219,
        91,
        282,
        238,
        150,
        -187,
        -389,
        -374,
        -260,
        -24,
        -3,
        -115,
        -151,
        -78,
        -221,
        65,
        199,
        81,
        -136,
        -274,
        346,
        134,
        9,
        273,
        104,
        -298,
        380,
        113,
        325,
        233,
        323,
        411,
        297,
        206,
        85,
        -152,
        -160,
        73,
        -197,
        -134,
        -287,
        -92,
        -55,
        290,
        206,
        -40,
        -567,
        -294,
        175,
        -7,
        -10,
        -125,
        -72,
        212,
        290,
        35,
        202,
        240,
        296,
        248,
        180,
        252,
        271,
        -11,
        -129,
        36,
        -99,
        -88,
        -77,
        6,
        191,
        92,
        386,
        -8,
        31,
        -389,
        38,
        12,
        -25,
        -30,
        9,
        551,
        45,
        164,
        261,
        319,
        214,
        190,
        219,
        235,
        225,
        100,
        -47,
        172,
        4,
        -18,
        27,
        67,
        212,
        117,
        -30,
        -88,
        -227,
        -234,
        124,
        65,
        16,
        -7,
        -8,
        330,
        58,
        35,
        479,
        340,
        282,
        331,
        193,
        128,
        112,
        3,
        27,
        195,
        -110,
        113,
        -34,
        169,
        21,
        -77,
        111,
        73,
        -200,
        -177,
        -40,
        -22,
        26,
        -9,
        -174,
        23,
        -33,
        -207,
        311,
        174,
        274,
        366,
        293,
        200,
        341,
        127,
        38,
        191,
        10,
        -112,
        312,
        -50,
        -39,
        -209,
        -37,
        -33,
        37,
        -73,
        -82,
        12,
        30,
        0,
        -1,
        -126,
        -462,
        -741,
        160,
        -91,
        -214,
        188,
        163,
        251,
        213,
        36,
        -214,
        58,
        51,
        -367,
        -307,
        -238,
        114,
        -265,
        -181,
        -242,
        -82,
        -46,
        11,
        -29,
        11,
        28,
        27,
        2,
        -168,
        -573,
        -644,
        -519,
        -68,
        125,
        107,
        110,
        208,
        348,
        -126,
        70,
        574,
        -195,
        -185,
        322,
        -185,
        -290,
        63,
        68,
        5,
        13,
        -16,
        1,
        16,
        -10,
        10,
        13,
        -2,
        -3,
        0,
        -34,
        -17,
        -10,
        -1,
        -97,
        -40,
        312,
        189,
        -126,
        -181,
        -52,
        -31,
        -5,
        -19,
        -48,
        8,
        -4,
        25,
        28,
        32,
        23
      ],
      [
        12,
        -31,
        23,
        0,
        6,
        -31,
        -32,
        -26,
        -28,
        26,
        34,
        -4,
        176,
        130,
        12,
        -14,
        28,
        28,
        -24,
        4,
        -22,
        -10,
        -33,
        -24,
        -19,
        1,
        10,
        -22,
        13,
        -28,
        25,
        27,
        39,
        57,
        237,
        264,
        238,
        413,
        183,
        39,
        365,
        422,
        -246,
        82,
        228,
        489,
        455,
        502,
        540,
        526,
        272,
        114,
        -26,
        3,
        -8,
        18,
        17,
        -19,
        106,
        304,
        411,
        223,
        237,
        294,
        -74,
        -401,
        -253,
        50,
        -282,
        -492,
        -235,
        -114,
        116,
        -140,
        -6,
        7,
        67,
        193,
        374,
        460,
        179,
        143,
        -23,
        29,
        -8,
        -5,
        -382,
        143,
        -57,
        224,
        423,
        637,
        630,
        37,
        167,
        92,
        -52,
        45,
        377,
        236,
        129,
        -57,
        63,
        86,
        336,
        49,
        -84,
        339,
        67,
        -257,
        -186,
        34,
        0,
        17,
        -335,
        -84,
        433,
        162,
        -48,
        169,
        246,
        -56,
        -107,
        192,
        4,
        55,
        19,
        8,
        -3,
        -221,
        -299,
        25,
        40,
        -46,
        43,
        5,
        -155,
        -175,
        -34,
        336,
        -25,
        9,
        -244,
        -29,
        174,
        49,
        -217,
        115,
        75,
        32,
        47,
        -130,
        -30,
        96,
        158,
        112,
        -78,
        44,
        -19,
        95,
        189,
        -28,
        -53,
        279,
        180,
        136,
        401,
        281,
        -4,
        181,
        -266,
        243,
        116,
        -85,
        -303,
        71,
        470,
        162,
        161,
        -55,
        -205,
        70,
        -27,
        21,
        47,
        -129,
        -173,
        44,
        152,
        45,
        48,
        159,
        415,
        194,
        31,
        193,
        16,
        308,
        -248,
        218,
        -109,
        -40,
        -264,
        53,
        -22,
        158,
        189,
        -68,
        -247,
        -202,
        1,
        46,
        9,
        -43,
        88,
        16,
        49,
        -69,
        -88,
        241,
        290,
        28,
        48,
        275,
        475,
        -341,
        -259,
        243,
        284,
        -42,
        -214,
        -9,
        -71,
        -72,
        -154,
        -140,
        -112,
        -92,
        80,
        63,
        29,
        -50,
        -81,
        -137,
        175,
        283,
        -4,
        -307,
        -39,
        59,
        -18,
        -144,
        -46,
        152,
        -27,
        121,
        282,
        -49,
        -113,
        -130,
        26,
        -187,
        -131,
        103,
        117,
        92,
        146,
        -202,
        -234,
        -27,
        -121,
        -2,
        166,
        -11,
        -299,
        1,
        30,
        -21,
        -489,
        -357,
        -109,
        84,
        212,
        396,
        372,
        -46,
        37,
        -95,
        -148,
        74,
        70,
        246,
        224,
        164,
        120,
        -230,
        -205,
        146,
        184,
        -17,
        150,
        -184,
        84,
        -62,
        -252,
        -756,
        -361,
        -332,
        -92,
        484,
        272,
        466,
        155,
        200,
        -32,
        -225,
        46,
        186,
        179,
        219,
        128,
        81,
        -42,
        -184,
        -136,
        314,
        242,
        33,
        -127,
        -97,
        -23,
        -293,
        -564,
        -614,
        306,
        -308,
        -21,
        -68,
        -167,
        47,
        74,
        160,
        -95,
        -136,
        277,
        332,
        33,
        8,
        -42,
        281,
        222,
        111,
        216,
        226,
        177,
        -17,
        -45,
        -136,
        89,
        54,
        -431,
        -533,
        -255,
        -348,
        -167,
        19,
        -480,
        -185,
        158,
        146,
        -173,
        -246,
        111,
        249,
        19,
        20,
        91,
        152,
        171,
        134,
        90,
        -4,
        203,
        194,
        6,
        21,
        -106,
        -93,
        -292,
        -493,
        -502,
        -260,
        42,
        100,
        -269,
        -486,
        -74,
        35,
        -301,
        -287,
        71,
        110,
        42,
        106,
        203,
        213,
        -119,
        20,
        -121,
        36,
        102,
        164,
        270,
        378,
        -7,
        -475,
        -717,
        -458,
        -609,
        -225,
        -147,
        184,
        -240,
        -394,
        -10,
        -74,
        -158,
        -5,
        5,
        -219,
        -56,
        -11,
        124,
        -95,
        -46,
        -177,
        -113,
        116,
        220,
        311,
        330,
        483,
        190,
        -75,
        -603,
        -562,
        -295,
        -253,
        -315,
        214,
        -107,
        -145,
        146,
        21,
        -223,
        -34,
        77,
        -207,
        -180,
        -145,
        51,
        19,
        -26,
        -216,
        -273,
        41,
        149,
        212,
        340,
        -16,
        96,
        -70,
        -528,
        -790,
        -234,
        -327,
        7,
        227,
        -185,
        -71,
        -79,
        -76,
        -373,
        131,
        -5,
        -182,
        -309,
        -104,
        185,
        97,
        -173,
        -174,
        -86,
        83,
        -127,
        217,
        94,
        -10,
        23,
        63,
        -384,
        -558,
        137,
        -110,
        -250,
        126,
        -52,
        57,
        -92,
        2,
        -43,
        -14,
        -7,
        -30,
        -90,
        155,
        148,
        121,
        27,
        52,
        143,
        47,
        -103,
        19,
        -108,
        -181,
        -276,
        -216,
        -357,
        -559,
        144,
        -194,
        -61,
        30,
        75,
        287,
        100,
        221,
        102,
        9,
        74,
        110,
        104,
        41,
        222,
        -25,
        58,
        -150,
        44,
        160,
        35,
        -198,
        -182,
        -193,
        -359,
        -342,
        -184,
        -195,
        -77,
        -234,
        -34,
        404,
        -43,
        76,
        88,
        69,
        26,
        -16,
        -19,
        123,
        228,
        57,
        18,
        138,
        256,
        -50,
        -105,
        37,
        -138,
        -126,
        -77,
        -256,
        -533,
        -691,
        -463,
        -394,
        91,
        -15,
        -92,
        -2,
        -75,
        -162,
        -298,
        -289,
        -43,
        -73,
        7,
        -138,
        -61,
        123,
        -4,
        69,
        97,
        115,
        147,
        28,
        -48,
        -152,
        -180,
        -586,
        -776,
        -871,
        -539,
        -325,
        331,
        39,
        -50,
        -19,
        -71,
        -276,
        -341,
        -392,
        -234,
        -116,
        -94,
        -4,
        -15,
        32,
        85,
        168,
        172,
        261,
        -29,
        -164,
        -164,
        -259,
        -823,
        -787,
        -735,
        -507,
        -313,
        -73,
        297,
        74,
        22,
        -5,
        434,
        -16,
        17,
        -231,
        -294,
        -153,
        -104,
        -70,
        -22,
        155,
        -53,
        58,
        174,
        -23,
        -317,
        -526,
        -499,
        -899,
        -1112,
        -538,
        -140,
        -192,
        144,
        106,
        -352,
        -33,
        18,
        -1,
        128,
        358,
        240,
        249,
        -181,
        -301,
        -193,
        5,
        -92,
        -133,
        141,
        189,
        89,
        -189,
        -287,
        -841,
        -626,
        -657,
        -521,
        -447,
        -9,
        104,
        54,
        -129,
        -199,
        -24,
        23,
        -34,
        307,
        -314,
        -373,
        61,
        39,
        -187,
        -80,
        -78,
        141,
        -148,
        -177,
        -73,
        -585,
        -620,
        -326,
        -446,
        -488,
        51,
        39,
        121,
        201,
        19,
        -186,
        17,
        -38,
        -2,
        6,
        18,
        -7,
        -20,
        -60,
        119,
        -73,
        -241,
        131,
        172,
        251,
        176,
        331,
        135,
        -346,
        -576,
        -273,
        92,
        -96,
        -26,
        76,
        -13,
        -120,
        -130,
        26,
        -125,
        -20,
        -27,
        -33,
        -26,
        23,
        21,
        -189,
        -229,
        -256,
        -15,
        -83,
        -35,
        -189,
        19,
        145,
        -378,
        -47,
        160,
        247,
        202,
        -37,
        -34,
        -71,
        1,
        -23,
        2,
        35,
        -15,
        27,
        11
      ],
      [
        -33,
        -11,
        -27,
        33,
        33,
        35,
        -29,
        26,
        9,
        -29,
        30,
        -13,
        -37,
        -28,
        15,
        44,
        0,
        2,
        -5,
        -24,
        -23,
        -19,
        -15,
        -22,
        -31,
        -1,
        11,
        0,
        31,
        -25,
        -14,
        19,
        -20,
        -6,
        -103,
        -91,
        -68,
        -56,
        -11,
        53,
        172,
        162,
        -68,
        238,
        221,
        250,
        -64,
        -29,
        -11,
        -21,
        -1,
        -33,
        35,
        5,
        20,
        18,
        -11,
        5,
        -36,
        -13,
        14,
        -144,
        -163,
        -93,
        -405,
        -558,
        -147,
        -74,
        -285,
        -556,
        -485,
        -28,
        276,
        249,
        252,
        160,
        312,
        310,
        290,
        271,
        -2,
        21,
        -14,
        -1,
        21,
        -1,
        -23,
        21,
        -206,
        -56,
        -6,
        285,
        410,
        -76,
        223,
        172,
        211,
        313,
        117,
        -150,
        -120,
        -204,
        -236,
        -123,
        138,
        -251,
        -438,
        -371,
        -186,
        -48,
        -23,
        -16,
        -17,
        31,
        94,
        563,
        176,
        -161,
        -103,
        -51,
        -232,
        -154,
        57,
        100,
        167,
        -27,
        4,
        -162,
        -360,
        -210,
        -80,
        -156,
        -308,
        12,
        89,
        91,
        105,
        167,
        108,
        20,
        -21,
        -13,
        55,
        183,
        -127,
        81,
        77,
        -77,
        15,
        169,
        12,
        31,
        -21,
        -37,
        54,
        -8,
        -53,
        -43,
        -6,
        80,
        33,
        -468,
        -468,
        -114,
        336,
        431,
        133,
        -12,
        33,
        62,
        195,
        254,
        138,
        141,
        174,
        115,
        178,
        108,
        174,
        115,
        1,
        88,
        32,
        163,
        121,
        70,
        74,
        -77,
        51,
        -4,
        -300,
        -304,
        193,
        341,
        -66,
        -42,
        15,
        211,
        270,
        50,
        3,
        -84,
        229,
        33,
        -5,
        118,
        204,
        191,
        168,
        274,
        65,
        138,
        -31,
        0,
        241,
        106,
        -3,
        -169,
        -291,
        -45,
        288,
        -131,
        200,
        -102,
        -42,
        -30,
        30,
        69,
        47,
        -27,
        120,
        32,
        127,
        -38,
        165,
        224,
        298,
        247,
        202,
        218,
        265,
        78,
        296,
        195,
        202,
        -47,
        -59,
        -22,
        38,
        -360,
        204,
        -43,
        191,
        11,
        21,
        -41,
        99,
        -32,
        107,
        50,
        83,
        15,
        202,
        106,
        188,
        268,
        370,
        208,
        347,
        304,
        187,
        165,
        149,
        -58,
        -6,
        44,
        97,
        -292,
        -33,
        -125,
        211,
        -42,
        -138,
        168,
        25,
        -111,
        98,
        -91,
        62,
        129,
        84,
        0,
        -51,
        255,
        328,
        220,
        441,
        244,
        -74,
        -136,
        102,
        -64,
        198,
        -94,
        -423,
        -146,
        -246,
        -203,
        217,
        -119,
        311,
        471,
        -88,
        -92,
        -99,
        -114,
        -40,
        -17,
        -130,
        -29,
        38,
        178,
        -54,
        180,
        51,
        33,
        -27,
        -117,
        21,
        -210,
        171,
        -191,
        -297,
        -281,
        -239,
        -242,
        151,
        -9,
        43,
        20,
        -115,
        -109,
        -111,
        -202,
        71,
        -84,
        -165,
        11,
        -93,
        -87,
        -96,
        58,
        31,
        -41,
        141,
        -53,
        -143,
        -18,
        152,
        -33,
        -235,
        -116,
        -454,
        -364,
        -14,
        62,
        14,
        -97,
        -76,
        -404,
        -64,
        53,
        139,
        -18,
        -193,
        0,
        14,
        9,
        -77,
        -16,
        38,
        -24,
        126,
        39,
        -124,
        72,
        -116,
        -362,
        -166,
        -125,
        -446,
        -480,
        -42,
        64,
        142,
        -38,
        23,
        -389,
        -84,
        -26,
        -41,
        -70,
        -225,
        79,
        143,
        -31,
        -134,
        71,
        -164,
        -64,
        94,
        67,
        3,
        43,
        -38,
        90,
        115,
        164,
        -505,
        -326,
        24,
        102,
        -43,
        44,
        287,
        38,
        46,
        -26,
        25,
        43,
        -4,
        10,
        -207,
        -269,
        -159,
        46,
        -61,
        42,
        -12,
        -2,
        143,
        264,
        299,
        280,
        286,
        5,
        -296,
        -416,
        144,
        156,
        91,
        160,
        77,
        -88,
        -164,
        96,
        231,
        144,
        93,
        -74,
        -193,
        -263,
        -259,
        -125,
        -259,
        -33,
        -5,
        -26,
        52,
        -3,
        131,
        80,
        152,
        -620,
        -540,
        -156,
        30,
        141,
        -40,
        321,
        -278,
        -80,
        -250,
        134,
        66,
        -130,
        -212,
        -129,
        -42,
        -238,
        -217,
        -139,
        -143,
        121,
        69,
        66,
        1,
        -132,
        166,
        192,
        385,
        -398,
        280,
        74,
        158,
        99,
        88,
        -75,
        -365,
        0,
        -95,
        78,
        51,
        -371,
        -144,
        195,
        -8,
        -355,
        -193,
        -165,
        -78,
        155,
        108,
        350,
        258,
        -46,
        86,
        -74,
        -33,
        -368,
        560,
        -393,
        18,
        400,
        274,
        116,
        -112,
        -62,
        -459,
        -265,
        34,
        -271,
        -126,
        9,
        213,
        -341,
        -188,
        -57,
        -14,
        193,
        105,
        404,
        331,
        48,
        -94,
        -378,
        -265,
        -844,
        -515,
        -224,
        9,
        348,
        208,
        132,
        -38,
        -216,
        -575,
        -236,
        25,
        -206,
        36,
        -139,
        -384,
        -349,
        6,
        36,
        100,
        80,
        119,
        419,
        402,
        -59,
        -351,
        -639,
        -409,
        -622,
        -135,
        43,
        -56,
        17,
        233,
        318,
        314,
        -68,
        -150,
        27,
        31,
        -138,
        -111,
        -45,
        -278,
        -170,
        55,
        197,
        276,
        284,
        188,
        296,
        226,
        -147,
        -580,
        -737,
        -496,
        -344,
        -283,
        2,
        -37,
        36,
        30,
        258,
        528,
        247,
        -3,
        -60,
        -150,
        -132,
        -153,
        -176,
        26,
        -73,
        87,
        170,
        305,
        361,
        147,
        43,
        -131,
        -446,
        -515,
        -559,
        -380,
        -143,
        -80,
        32,
        -3,
        12,
        103,
        -16,
        429,
        351,
        172,
        -29,
        -273,
        -270,
        -112,
        22,
        -56,
        -3,
        45,
        119,
        108,
        -5,
        31,
        -118,
        -289,
        -360,
        -456,
        -334,
        152,
        28,
        -249,
        -13,
        10,
        8,
        524,
        275,
        870,
        822,
        115,
        212,
        -199,
        56,
        339,
        112,
        98,
        264,
        198,
        86,
        -37,
        -77,
        -173,
        -234,
        -365,
        -724,
        -406,
        -104,
        -342,
        -262,
        -167,
        33,
        -20,
        -26,
        124,
        -166,
        227,
        420,
        55,
        164,
        313,
        319,
        543,
        250,
        242,
        103,
        -231,
        -197,
        -32,
        -173,
        -120,
        235,
        -133,
        -301,
        -291,
        -105,
        -5,
        14,
        -136,
        -8,
        -4,
        -25,
        -8,
        239,
        -51,
        86,
        94,
        98,
        573,
        445,
        444,
        96,
        -21,
        375,
        305,
        -94,
        218,
        583,
        409,
        217,
        492,
        398,
        328,
        431,
        92,
        32,
        9,
        32,
        25,
        -2,
        -4,
        22,
        -19,
        -21,
        133,
        159,
        16,
        -293,
        -196,
        -265,
        -181,
        -124,
        107,
        175,
        253,
        380,
        378,
        458,
        409,
        241,
        -179,
        61,
        19,
        -23,
        35,
        -23
      ],
      [
        23,
        35,
        11,
        10,
        -15,
        8,
        -20,
        -32,
        22,
        32,
        25,
        35,
        23,
        21,
        5,
        -10,
        33,
        -26,
        -9,
        8,
        -18,
        -11,
        -1,
        -3,
        32,
        0,
        9,
        -14,
        -15,
        -13,
        2,
        -17,
        25,
        58,
        125,
        120,
        -17,
        -115,
        -66,
        -88,
        300,
        244,
        190,
        246,
        316,
        97,
        28,
        317,
        212,
        50,
        251,
        132,
        8,
        -30,
        14,
        12,
        -22,
        8,
        40,
        13,
        205,
        175,
        -15,
        54,
        369,
        514,
        584,
        561,
        88,
        14,
        398,
        700,
        213,
        206,
        389,
        550,
        229,
        284,
        287,
        231,
        314,
        271,
        -4,
        3,
        -18,
        0,
        -28,
        56,
        164,
        271,
        533,
        655,
        685,
        435,
        183,
        90,
        -128,
        -38,
        75,
        -325,
        -187,
        101,
        -2,
        184,
        328,
        69,
        -8,
        33,
        143,
        190,
        -15,
        -29,
        -22,
        42,
        -55,
        25,
        -45,
        198,
        365,
        -4,
        38,
        -471,
        -83,
        -23,
        -2,
        84,
        -155,
        68,
        -29,
        -241,
        -266,
        -38,
        54,
        83,
        257,
        154,
        49,
        71,
        40,
        -15,
        2,
        33,
        83,
        347,
        515,
        197,
        -31,
        191,
        -10,
        -75,
        -197,
        -239,
        -50,
        37,
        71,
        68,
        -166,
        -111,
        -154,
        -45,
        -22,
        -282,
        19,
        -53,
        103,
        154,
        70,
        -5,
        13,
        97,
        232,
        539,
        377,
        39,
        199,
        317,
        126,
        274,
        1,
        24,
        114,
        78,
        6,
        26,
        -25,
        -33,
        20,
        10,
        -325,
        28,
        -177,
        -181,
        15,
        -164,
        135,
        -29,
        -24,
        186,
        323,
        474,
        444,
        263,
        171,
        259,
        54,
        -23,
        -113,
        63,
        189,
        248,
        265,
        -206,
        -284,
        -58,
        -106,
        -83,
        -254,
        -210,
        -106,
        -154,
        25,
        69,
        249,
        -114,
        17,
        122,
        64,
        314,
        267,
        -24,
        -158,
        0,
        -10,
        35,
        197,
        152,
        204,
        175,
        94,
        -319,
        -521,
        -133,
        -373,
        -123,
        -190,
        -88,
        86,
        -289,
        -244,
        -188,
        43,
        -286,
        131,
        188,
        121,
        0,
        14,
        98,
        -144,
        59,
        78,
        16,
        4,
        222,
        319,
        38,
        140,
        -355,
        -622,
        -436,
        -294,
        -175,
        -258,
        -207,
        -154,
        -330,
        72,
        306,
        396,
        312,
        126,
        234,
        126,
        100,
        -183,
        60,
        -118,
        -71,
        -327,
        -325,
        -264,
        232,
        76,
        170,
        -158,
        -294,
        -254,
        -155,
        -369,
        -126,
        -474,
        -430,
        -152,
        101,
        171,
        241,
        304,
        222,
        114,
        339,
        209,
        -37,
        192,
        -89,
        -421,
        -280,
        -368,
        -351,
        17,
        305,
        206,
        91,
        77,
        -94,
        -62,
        -57,
        -44,
        111,
        -141,
        -284,
        201,
        410,
        44,
        -128,
        -342,
        346,
        21,
        337,
        182,
        86,
        361,
        84,
        -211,
        -349,
        -308,
        -229,
        184,
        206,
        148,
        50,
        311,
        120,
        40,
        -29,
        76,
        310,
        -137,
        -352,
        188,
        46,
        43,
        77,
        42,
        428,
        -16,
        116,
        417,
        295,
        378,
        -150,
        -76,
        -386,
        -125,
        76,
        501,
        214,
        157,
        223,
        247,
        -24,
        134,
        117,
        122,
        253,
        18,
        -138,
        43,
        221,
        385,
        65,
        -27,
        156,
        74,
        162,
        359,
        390,
        325,
        -261,
        -273,
        -509,
        -76,
        253,
        318,
        31,
        247,
        195,
        191,
        81,
        10,
        -103,
        -8,
        143,
        294,
        21,
        -10,
        381,
        358,
        33,
        30,
        296,
        78,
        39,
        -91,
        137,
        -5,
        -222,
        -429,
        -286,
        -18,
        191,
        269,
        225,
        268,
        2,
        137,
        142,
        -36,
        25,
        47,
        132,
        -7,
        121,
        233,
        303,
        501,
        317,
        -67,
        607,
        59,
        49,
        100,
        215,
        60,
        -382,
        -219,
        293,
        262,
        528,
        440,
        238,
        -91,
        -94,
        120,
        -154,
        -152,
        -22,
        39,
        140,
        -140,
        140,
        297,
        420,
        294,
        189,
        530,
        502,
        2,
        46,
        -30,
        -10,
        83,
        -216,
        -173,
        169,
        -87,
        302,
        294,
        161,
        118,
        186,
        34,
        -307,
        -241,
        111,
        -138,
        69,
        -153,
        128,
        272,
        425,
        378,
        646,
        508,
        316,
        -105,
        52,
        95,
        -143,
        7,
        -70,
        -319,
        -476,
        -430,
        -90,
        89,
        -43,
        111,
        47,
        37,
        -312,
        -98,
        -60,
        -59,
        -84,
        -80,
        293,
        470,
        341,
        284,
        901,
        353,
        369,
        3,
        335,
        13,
        -211,
        -311,
        -189,
        -599,
        -888,
        -619,
        -478,
        -302,
        -22,
        -47,
        -174,
        96,
        76,
        84,
        -177,
        -15,
        -37,
        8,
        272,
        13,
        -65,
        -3,
        554,
        465,
        184,
        -25,
        -136,
        -93,
        -196,
        -300,
        -56,
        -334,
        -785,
        -690,
        -405,
        -446,
        -321,
        -338,
        -206,
        72,
        135,
        98,
        -38,
        6,
        -3,
        38,
        -8,
        -290,
        -195,
        -246,
        111,
        452,
        -15,
        18,
        85,
        176,
        -69,
        -273,
        94,
        -83,
        -523,
        -443,
        -358,
        -357,
        -350,
        -236,
        -270,
        -132,
        -32,
        -31,
        -132,
        8,
        -104,
        -179,
        -371,
        -418,
        -193,
        -57,
        -151,
        382,
        30,
        -25,
        10,
        266,
        311,
        86,
        5,
        116,
